<?xml version="1.0"?>
<MethodSetup Method="BDT::BDT">
  <GeneralInfo>
    <Info name="TMVA Release" value="4.2.1 [262657]"/>
    <Info name="ROOT Release" value="6.08/07 [395271]"/>
    <Info name="Creator" value="ursl"/>
    <Info name="Date" value="Fri Jan 19 16:36:19 2018"/>
    <Info name="Host" value="Linux vocms0302.cern.ch 2.6.32-696.1.1.el6.x86_64 #1 SMP Wed Apr 12 08:44:28 CEST 2017 x86_64 x86_64 x86_64 GNU/Linux"/>
    <Info name="Dir" value="/mnt/t3nfs01/data01/shome/ursl/bmm4/CMSSW_9_2_7/src/Bmm/RootAnalysis/macros"/>
    <Info name="Training events" value="120952"/>
    <Info name="TrainingTime" value="8.06552429e+01"/>
    <Info name="AnalysisType" value="Classification"/>
    <Info name="Preselection:PTMIN" value="5.000000"/>
    <Info name="Preselection:PTMAX" value="9999.000000"/>
    <Info name="Preselection:M1PTMIN" value="4.000000"/>
    <Info name="Preselection:M1PTMAX" value="999.000000"/>
    <Info name="Preselection:M2PTMIN" value="4.000000"/>
    <Info name="Preselection:M2PTMAX" value="999.000000"/>
    <Info name="Preselection:FL3DMAX" value="2.000000"/>
    <Info name="Preselection:FLS3DMIN" value="4.000000"/>
    <Info name="Preselection:FLS3DMAX" value="200.000000"/>
    <Info name="Preselection:FLSXYMIN" value="4.000000"/>
    <Info name="Preselection:CHI2DOFMAX" value="5.000000"/>
    <Info name="Preselection:PVIPMAX" value="0.100000"/>
    <Info name="Preselection:PVIPSMAX" value="5.000000"/>
    <Info name="Preselection:PVLIPMAX" value="1.000000"/>
    <Info name="Preselection:PVLIPSMAX" value="5.000000"/>
    <Info name="Preselection:MAXDOCAMAX" value="0.080000"/>
    <Info name="Preselection:CLOSETRKMAX" value="21.000000"/>
    <Info name="Preselection:DOCATRKMAX" value="2.500000"/>
    <Info name="Preselection:ISOMIN" value="0.000000"/>
    <Info name="Preselection:ALPHAMAX" value="1.000000"/>
    <Info name="Preselection:MASSERRORMAX" value="0.200000"/>
    <Info name="Files:file-sg:/scratch/ursl/bmm4/v06/bmm-signal-2016-v06.root" value="0.000000"/>
    <Info name="Files:file-bg:/scratch/ursl/bmm4/v08/bmm-data-bmmLegacyCharmonium2016-v08.root" value="0.000000"/>
  </GeneralInfo>
  <Options>
    <Option name="V" modified="Yes">True</Option>
    <Option name="VerbosityLevel" modified="No">Verbose</Option>
    <Option name="VarTransform" modified="No">None</Option>
    <Option name="H" modified="Yes">False</Option>
    <Option name="CreateMVAPdfs" modified="No">False</Option>
    <Option name="IgnoreNegWeightsInTraining" modified="No">False</Option>
    <Option name="NTrees" modified="Yes">800</Option>
    <Option name="MaxDepth" modified="Yes">4</Option>
    <Option name="MinNodeSize" modified="Yes">5.000000</Option>
    <Option name="nCuts" modified="Yes">20</Option>
    <Option name="BoostType" modified="Yes">AdaBoost</Option>
    <Option name="AdaBoostR2Loss" modified="No">quadratic</Option>
    <Option name="UseBaggedBoost" modified="No">False</Option>
    <Option name="Shrinkage" modified="No">1.000000e+00</Option>
    <Option name="AdaBoostBeta" modified="Yes">5.000000e-01</Option>
    <Option name="UseRandomisedTrees" modified="No">False</Option>
    <Option name="UseNvars" modified="No">3</Option>
    <Option name="UsePoissonNvars" modified="No">True</Option>
    <Option name="BaggedSampleFraction" modified="No">6.000000e-01</Option>
    <Option name="UseYesNoLeaf" modified="No">True</Option>
    <Option name="NegWeightTreatment" modified="No">inverseboostnegweights</Option>
    <Option name="Css" modified="No">1.000000e+00</Option>
    <Option name="Cts_sb" modified="No">1.000000e+00</Option>
    <Option name="Ctb_ss" modified="No">1.000000e+00</Option>
    <Option name="Cbb" modified="No">1.000000e+00</Option>
    <Option name="NodePurityLimit" modified="No">5.000000e-01</Option>
    <Option name="SeparationType" modified="No">giniindex</Option>
    <Option name="RegressionLossFunctionBDTG" modified="No">huber</Option>
    <Option name="HuberQuantile" modified="No">7.000000e-01</Option>
    <Option name="DoBoostMonitor" modified="No">False</Option>
    <Option name="UseFisherCuts" modified="No">False</Option>
    <Option name="MinLinCorrForFisher" modified="No">8.000000e-01</Option>
    <Option name="UseExclusiveVars" modified="No">False</Option>
    <Option name="DoPreselection" modified="No">False</Option>
    <Option name="SigToBkgFraction" modified="No">1.000000e+00</Option>
    <Option name="PruneMethod" modified="No">nopruning</Option>
    <Option name="PruneStrength" modified="No">0.000000e+00</Option>
    <Option name="PruningValFraction" modified="No">5.000000e-01</Option>
    <Option name="SkipNormalization" modified="No">False</Option>
    <Option name="nEventsMin" modified="No">0</Option>
    <Option name="UseBaggedGrad" modified="No">False</Option>
    <Option name="GradBaggingFraction" modified="No">6.000000e-01</Option>
    <Option name="UseNTrainEvents" modified="No">0</Option>
    <Option name="NNodesMax" modified="No">0</Option>
  </Options>
  <Variables NVar="8">
    <Variable VarIndex="0" Expression="alpha" Label="alpha" Title="alpha" Unit="" Internal="alpha" Type="F" Min="3.47462301e-05" Max="9.78377283e-01"/>
    <Variable VarIndex="1" Expression="pvips" Label="pvips" Title="pvips" Unit="" Internal="pvips" Type="F" Min="1.87103637e-03" Max="4.99934006e+00"/>
    <Variable VarIndex="2" Expression="docatrk" Label="docatrk" Title="docatrk" Unit="" Internal="docatrk" Type="F" Min="1.25526258e-05" Max="5.24925947e-01"/>
    <Variable VarIndex="3" Expression="chi2dof" Label="chi2dof" Title="chi2dof" Unit="" Internal="chi2dof" Type="F" Min="2.34420094e-10" Max="4.99986315e+00"/>
    <Variable VarIndex="4" Expression="closetrk" Label="closetrk" Title="closetrk" Unit="" Internal="closetrk" Type="F" Min="0.00000000e+00" Max="2.00000000e+01"/>
    <Variable VarIndex="5" Expression="iso" Label="iso" Title="iso" Unit="" Internal="iso" Type="F" Min="8.85450561e-03" Max="1.00000000e+00"/>
    <Variable VarIndex="6" Expression="fls3d" Label="fls3d" Title="fls3d" Unit="" Internal="fls3d" Type="F" Min="4.00008631e+00" Max="1.97548996e+02"/>
    <Variable VarIndex="7" Expression="othervtx" Label="othervtx" Title="othervtx" Unit="" Internal="othervtx" Type="F" Min="-2.62081623e-04" Max="9.74607766e-01"/>
  </Variables>
  <Spectators NSpec="1">
    <Spectator SpecIndex="0" Expression="m" Label="m" Title="mass" Unit="GeV" Internal="m" Type="F" Min="4.49619722e+00" Max="5.89995766e+00"/>
  </Spectators>
  <Classes NClass="2">
    <Class Name="Signal" Index="0"/>
    <Class Name="Background" Index="1"/>
  </Classes>
  <Transformations NTransformations="0"/>
  <MVAPdfs/>
  <Weights NTrees="800" AnalysisType="0">
    <BinaryTree type="DecisionTree" boostWeight="9.3567640465729152e-01" itree="0">
      <Node pos="s" depth="0" NCoef="0" IVar="4" Cut="2.8571429252624512e+00" cType="1" res="-9.9000000000000000e+01" rms="0.0000000000000000e+00" purity="5.0000000000000000e-01" nType="0">
        <Node pos="l" depth="1" NCoef="0" IVar="-1" Cut="3.9984524250030518e-02" cType="1" res="-9.9000000000000000e+01" rms="0.0000000000000000e+00" purity="9.0611362457275391e-01" nType="1"/>
        <Node pos="r" depth="1" NCoef="0" IVar="5" Cut="8.1121039390563965e-01" cType="0" res="-9.9000000000000000e+01" rms="0.0000000000000000e+00" purity="2.3802666366100311e-01" nType="0">
          <Node pos="l" depth="2" NCoef="0" IVar="0" Cut="9.3492433428764343e-02" cType="1" res="-9.9000000000000000e+01" rms="0.0000000000000000e+00" purity="5.6585443019866943e-01" nType="0">
            <Node pos="l" depth="3" NCoef="0" IVar="-1" Cut="0.0000000000000000e+00" cType="1" res="-9.9000000000000000e+01" rms="0.0000000000000000e+00" purity="7.4264192581176758e-01" nType="1"/>
            <Node pos="r" depth="3" NCoef="0" IVar="-1" Cut="0.0000000000000000e+00" cType="1" res="-9.9000000000000000e+01" rms="0.0000000000000000e+00" purity="3.7571465969085693e-01" nType="-1"/>
          </Node>
          <Node pos="r" depth="2" NCoef="0" IVar="-1" Cut="6.0452152043581009e-02" cType="1" res="-9.9000000000000000e+01" rms="0.0000000000000000e+00" purity="8.7417833507061005e-02" nType="-1"/>
        </Node>
      </Node>
    </BinaryTree>
    <BinaryTree type="DecisionTree" boostWeight="6.8514404508107796e-01" itree="1">
      <Node pos="s" depth="0" NCoef="0" IVar="6" Cut="1.3216701507568359e+01" cType="0" res="-9.9000000000000000e+01" rms="0.0000000000000000e+00" purity="5.0559443235397339e-01" nType="0">
        <Node pos="l" depth="1" NCoef="0" IVar="-1" Cut="2.3779940605163574e+00" cType="1" res="-9.9000000000000000e+01" rms="0.0000000000000000e+00" purity="8.7541079521179199e-01" nType="1"/>
        <Node pos="r" depth="1" NCoef="0" IVar="5" Cut="8.5840779542922974e-01" cType="0" res="-9.9000000000000000e+01" rms="0.0000000000000000e+00" purity="3.3403846621513367e-01" nType="0">
          <Node pos="l" depth="2" NCoef="0" IVar="5" Cut="9.2583668231964111e-01" cType="0" res="-9.9000000000000000e+01" rms="0.0000000000000000e+00" purity="6.2171512842178345e-01" nType="0">
            <Node pos="l" depth="3" NCoef="0" IVar="-1" Cut="7.9501137733459473e+00" cType="0" res="-9.9000000000000000e+01" rms="0.0000000000000000e+00" purity="7.0907652378082275e-01" nType="1"/>
            <Node pos="r" depth="3" NCoef="0" IVar="-1" Cut="0.0000000000000000e+00" cType="1" res="-9.9000000000000000e+01" rms="0.0000000000000000e+00" purity="4.6452340483665466e-01" nType="-1"/>
          </Node>
          <Node pos="r" depth="2" NCoef="0" IVar="1" Cut="1.6750665903091431e+00" cType="1" res="-9.9000000000000000e+01" rms="0.0000000000000000e+00" purity="1.7836084961891174e-01" nType="0">
            <Node pos="l" depth="3" NCoef="0" IVar="6" Cut="6.6324739456176758e+00" cType="0" res="-9.9000000000000000e+01" rms="0.0000000000000000e+00" purity="3.1229463219642639e-01" nType="0">
              <Node pos="l" depth="4" NCoef="0" IVar="-1" Cut="0.0000000000000000e+00" cType="1" res="-9.9000000000000000e+01" rms="0.0000000000000000e+00" purity="5.0432187318801880e-01" nType="1"/>
